digraph Tree {
node [shape=box] ;
0 [label="Embarked[C] <= 0.5\ngini = 0.473\nsamples = 891\nvalue = [549, 342]"] ;
1 [label="Deck[T.E] <= 0.5\ngini = 0.45\nsamples = 721\nvalue = [474, 247]"] ;
0 -> 1 [labeldistance=2.5, labelangle=45, headlabel="True"] ;
2 [label="Mod_Class <= 3.5\ngini = 0.441\nsamples = 694\nvalue = [466, 228]"] ;
1 -> 2 ;
3 [label="Pfx[T.Mr] <= 0.5\ngini = 0.5\nsamples = 272\nvalue = [135, 137]"] ;
2 -> 3 ;
4 [label="gini = 0.188\nsamples = 124\nvalue = [13, 111]"] ;
3 -> 4 ;
5 [label="gini = 0.29\nsamples = 148\nvalue = [122, 26]"] ;
3 -> 5 ;
6 [label="Pfx[T.Mr] <= 0.5\ngini = 0.338\nsamples = 422\nvalue = [331, 91]"] ;
2 -> 6 ;
7 [label="gini = 0.491\nsamples = 143\nvalue = [81, 62]"] ;
6 -> 7 ;
8 [label="gini = 0.186\nsamples = 279\nvalue = [250, 29]"] ;
6 -> 8 ;
9 [label="Mod_Class <= 3.5\ngini = 0.417\nsamples = 27\nvalue = [8, 19]"] ;
1 -> 9 ;
10 [label="Pfx[T.Miss] <= 0.5\ngini = 0.444\nsamples = 24\nvalue = [8, 16]"] ;
9 -> 10 ;
11 [label="gini = 0.488\nsamples = 19\nvalue = [8, 11]"] ;
10 -> 11 ;
12 [label="gini = 0.0\nsamples = 5\nvalue = [0, 5]"] ;
10 -> 12 ;
13 [label="gini = 0.0\nsamples = 3\nvalue = [0, 3]"] ;
9 -> 13 ;
14 [label="Pfx[T.Mr] <= 0.5\ngini = 0.493\nsamples = 170\nvalue = [75, 95]"] ;
0 -> 14 [labeldistance=2.5, labelangle=-45, headlabel="False"] ;
15 [label="Mod_Class <= 3.5\ngini = 0.2\nsamples = 80\nvalue = [9, 71]"] ;
14 -> 15 ;
16 [label="Alone <= 0.5\ngini = 0.037\nsamples = 53\nvalue = [1, 52]"] ;
15 -> 16 ;
17 [label="gini = 0.0\nsamples = 31\nvalue = [0, 31]"] ;
16 -> 17 ;
18 [label="gini = 0.087\nsamples = 22\nvalue = [1, 21]"] ;
16 -> 18 ;
19 [label="Fare <= 13.935\ngini = 0.417\nsamples = 27\nvalue = [8, 19]"] ;
15 -> 19 ;
20 [label="gini = 0.0\nsamples = 8\nvalue = [0, 8]"] ;
19 -> 20 ;
21 [label="gini = 0.488\nsamples = 19\nvalue = [8, 11]"] ;
19 -> 21 ;
22 [label="Mod_Class <= 2.5\ngini = 0.391\nsamples = 90\nvalue = [66, 24]"] ;
14 -> 22 ;
23 [label="FamSize <= 0.5\ngini = 0.482\nsamples = 42\nvalue = [25, 17]"] ;
22 -> 23 ;
24 [label="gini = 0.454\nsamples = 23\nvalue = [15, 8]"] ;
23 -> 24 ;
25 [label="gini = 0.499\nsamples = 19\nvalue = [10, 9]"] ;
23 -> 25 ;
26 [label="Alone <= 0.5\ngini = 0.249\nsamples = 48\nvalue = [41, 7]"] ;
22 -> 26 ;
27 [label="gini = 0.165\nsamples = 11\nvalue = [10, 1]"] ;
26 -> 27 ;
28 [label="gini = 0.272\nsamples = 37\nvalue = [31, 6]"] ;
26 -> 28 ;
}